svm_type c_svc
kernel_type rbf
gamma 0.25
nr_class 3
total_sv 58
rho -0.0621048 0.0160343 0.105131
label 1 2 3
nr_sv 7 28 23
SV
0 0.6547902353933371 1:-0.22222222 2:1 3:-0.83050847 4:-0.75 
1 0.7578248874292549 1:-0.55555556 2:0.083333333 3:-0.76271186 4:-0.66666667 
1 0 1:-0.61111111 2:-0.16666667 3:-0.79661017 4:-0.91666667 
0.02390535452489945 0 1:-0.38888889 2:0.16666667 3:-0.83050847 4:-0.75 
1 1 1:-0.88888889 2:-0.75 3:-0.89830508 4:-0.83333333 
1 0 1:-0.61111111 2:0.25 3:-0.79661017 4:-0.58333333 
0.604173374620445 0 1:-0.72222222 2:-0.16666667 3:-0.86440678 4:-0.83333333 
-0 1 1:0.5 3:0.25423729 4:0.083333333 
-0 1 1:0.16666667 3:0.18644068 4:0.16666667 
-0 1 1:0.44444444 2:-0.083333333 3:0.3220339 4:0.16666667 
-0 1 1:-0.33333333 2:-0.75 3:0.016949153 
-0 1 1:0.22222222 2:-0.33333333 3:0.22033898 4:0.16666667 
-0 0.7548145228357267 1:-0.22222222 2:-0.33333333 3:0.18644068 
-0 1 1:0.11111111 2:0.083333333 3:0.25423729 4:0.25 
-1 0 1:-0.66666667 2:-0.66666667 3:-0.22033898 4:-0.25 
-0 1 1:-0.11111111 2:-0.16666667 3:0.084745763 4:0.16666667 
-0 1 1:-2.220446e-16 2:-0.25 3:0.25423729 4:0.083333333 
-0.6280787291453445 0 1:-0.27777778 2:-0.25 3:-0.11864407 
-0 1 1:-0.27777778 2:-0.16666667 3:0.18644068 4:0.16666667 
-0 1 1:0.055555556 2:-0.83333333 3:0.18644068 4:0.16666667 
-0 1 1:-0.11111111 3:0.28813559 4:0.41666667 
-0 1 1:0.11111111 2:-0.58333333 3:0.3220339 4:0.16666667 
-0 0.6183963981014037 1:0.27777778 2:-0.16666667 3:0.15254237 4:0.083333333 
-0 1 1:0.38888889 2:-0.33333333 3:0.28813559 4:0.083333333 
-0 1 1:0.33333333 2:-0.16666667 3:0.3559322 4:0.33333333 
-0 1 1:-0.055555556 2:-0.25 3:0.18644068 4:0.16666667 
-1 0 1:-0.22222222 2:-0.5 3:-0.15254237 4:-0.25 
-0 1 1:-0.055555556 2:-0.41666667 3:0.38983051 4:0.25 
-0 1 1:-0.38888889 2:-0.16666667 3:0.18644068 4:0.16666667 
-0 1 1:-0.055555556 2:0.16666667 3:0.18644068 4:0.25 
-0 1 1:0.33333333 2:-0.083333333 3:0.25423729 4:0.16666667 
-0 1 1:0.11111111 2:-0.75 3:0.15254237 
-0 1 1:-2.220446e-16 2:-0.16666667 3:0.22033898 4:0.083333333 
-1 0 1:-0.61111111 2:-0.75 3:-0.22033898 4:-0.25 
-1 0 1:-0.55555556 2:-0.58333333 3:-0.3220339 4:-0.16666667 
-0 -1 1:-0.16666667 2:-0.41666667 3:0.38983051 4:0.5 
-0 -1 1:0.11111111 2:-0.25 3:0.55932203 4:0.41666667 
-1 -1 1:-0.66666667 2:-0.58333333 3:0.18644068 4:0.33333333 
-0 -1 1:0.22222222 3:0.38983051 4:0.58333333 
-0 -1 1:0.16666667 2:-0.41666667 3:0.45762712 4:0.5 
-0 -0.9312229470545805 1:-0.22222222 2:-0.58333333 3:0.3559322 4:0.58333333 
-0 -1 1:0.22222222 2:-0.16666667 3:0.52542373 4:0.41666667 
-0.5145081943129701 -1 1:-0.055555556 2:-0.83333333 3:0.3559322 4:0.16666667 
-0 -1 1:-0.27777778 2:-0.33333333 3:0.3220339 4:0.58333333 
-0 -1 1:0.11111111 2:-0.41666667 3:0.3220339 4:0.41666667 
-0 -1 1:0.61111111 3:0.69491525 4:0.41666667 
-0 -1 1:0.055555556 2:-0.33333333 3:0.28813559 4:0.41666667 
-0 -1 1:-2.220446e-16 2:-0.16666667 3:0.3220339 4:0.41666667 
-0 -1 1:0.61111111 2:-0.16666667 3:0.62711864 4:0.25 
-0.5939845523455282 -0.4419879738825499 1:1 2:0.5 3:0.83050847 4:0.58333333 
-0.2403647161240104 -1 1:0.11111111 2:-0.33333333 3:0.38983051 4:0.16666667 
-0 -1 1:-2.220446e-16 2:-0.5 3:0.55932203 4:0.083333333 
-0 -1 1:0.16666667 2:-0.083333333 3:0.52542373 4:0.41666667 
-0.06375766004008344 -1 1:-0.055555556 2:-0.16666667 3:0.28813559 4:0.41666667 
-0 -1 1:-0.16666667 2:-0.41666667 3:0.38983051 4:0.5 
-0 -1 1:0.11111111 2:-0.58333333 3:0.3559322 4:0.5 
-0 -1 1:0.22222222 2:-0.16666667 3:0.42372881 4:0.58333333 
-0 -1 1:-0.11111111 2:-0.16666667 3:0.38983051 4:0.41666667 
